
Options: -C 0.25 -M 2 

J48 pruned tree
------------------

engin_perform_lack <= 0
|   floor_level_servic_provid <= 0: cluster_119 (8.0/3.0)
|   floor_level_servic_provid > 0: cluster_117 (2.0)
engin_perform_lack > 0: cluster_118 (3.0)

Number of Leaves  : 	3

Size of the tree : 	5


Time taken to build model: 0.05 seconds
Time taken to test model on training data: 0.02 seconds

=== Error on training data ===

Correctly Classified Instances          10               76.9231 %
Incorrectly Classified Instances         3               23.0769 %
Kappa statistic                          0.6455
Mean absolute error                      0.1923
Root mean squared error                  0.3101
Relative absolute error                 44.1176 %
Root relative squared error             66.5436 %
Total Number of Instances               13     


=== Confusion Matrix ===

 a b c   <-- classified as
 3 0 0 | a = cluster_118
 0 2 3 | b = cluster_117
 0 0 5 | c = cluster_119



=== Stratified cross-validation ===

Correctly Classified Instances           7               53.8462 %
Incorrectly Classified Instances         6               46.1538 %
Kappa statistic                          0.2778
Mean absolute error                      0.328 
Root mean squared error                  0.4426
Relative absolute error                 71.4539 %
Root relative squared error             89.9396 %
Total Number of Instances               13     


=== Confusion Matrix ===

 a b c   <-- classified as
 2 0 1 | a = cluster_118
 0 0 5 | b = cluster_117
 0 0 5 | c = cluster_119

