
Options: -C 0.25 -M 2 

J48 pruned tree
------------------

room_servic <= 0
|   speed_limit <= 0
|   |   ga_mileag <= 0.02: cluster_22 (29.0/8.0)
|   |   ga_mileag > 0.02: cluster_21 (7.0/1.0)
|   speed_limit > 0: cluster_20 (2.0)
room_servic > 0: cluster_20 (13.0)

Number of Leaves  : 	4

Size of the tree : 	7


Time taken to build model: 0.08 seconds
Time taken to test model on training data: 0.01 seconds

=== Error on training data ===

Correctly Classified Instances          42               82.3529 %
Incorrectly Classified Instances         9               17.6471 %
Kappa statistic                          0.716 
Mean absolute error                      0.1874
Root mean squared error                  0.3061
Relative absolute error                 43.6352 %
Root relative squared error             66.1212 %
Total Number of Instances               51     


=== Confusion Matrix ===

  a  b  c   <-- classified as
 21  1  0 |  a = cluster_22
  5  6  0 |  b = cluster_21
  3  0 15 |  c = cluster_20



=== Stratified cross-validation ===

Correctly Classified Instances          35               68.6275 %
Incorrectly Classified Instances        16               31.3725 %
Kappa statistic                          0.4969
Mean absolute error                      0.2508
Root mean squared error                  0.4103
Relative absolute error                 58.2427 %
Root relative squared error             88.4107 %
Total Number of Instances               51     


=== Confusion Matrix ===

  a  b  c   <-- classified as
 19  3  0 |  a = cluster_22
  6  5  0 |  b = cluster_21
  6  1 11 |  c = cluster_20

