
Options: -C 0.25 -M 2 

J48 pruned tree
------------------
: cluster_2 (3200.0/242.0)

Number of Leaves  : 	1

Size of the tree : 	1


Time taken to build model: 0.31 seconds
Time taken to test model on training data: 0.19 seconds

=== Error on training data ===

Correctly Classified Instances        2958               92.4375 %
Incorrectly Classified Instances       242                7.5625 %
Kappa statistic                          0     
Mean absolute error                      0.1398
Root mean squared error                  0.2644
Relative absolute error                 99.8393 %
Root relative squared error             99.9999 %
Total Number of Instances             3200     


=== Confusion Matrix ===

    a    b   <-- classified as
 2958    0 |    a = cluster_2
  242    0 |    b = cluster_1



=== Stratified cross-validation ===

Correctly Classified Instances        2958               92.4375 %
Incorrectly Classified Instances       242                7.5625 %
Kappa statistic                          0     
Mean absolute error                      0.1398
Root mean squared error                  0.2644
Relative absolute error                 99.8215 %
Root relative squared error             99.9999 %
Total Number of Instances             3200     


=== Confusion Matrix ===

    a    b   <-- classified as
 2958    0 |    a = cluster_2
  242    0 |    b = cluster_1

